<?xml version="1.0"?>
<opencv_storage>
<cascade>
  <stageType>BOOST</stageType>
  <featureType>HAAR</featureType>
  <height>20</height>
  <width>90</width>
  <stageParams>
    <boostType>GAB</boostType>
    <minHitRate>9.9500000476837158e-01</minHitRate>
    <maxFalseAlarm>5.0000000000000000e-01</maxFalseAlarm>
    <weightTrimRate>9.4999999999999996e-01</weightTrimRate>
    <maxDepth>1</maxDepth>
    <maxWeakCount>100</maxWeakCount></stageParams>
  <featureParams>
    <maxCatCount>0</maxCatCount>
    <featSize>1</featSize>
    <mode>ALL</mode></featureParams>
  <stageNum>30</stageNum>
  <stages>
    <!-- stage 0 -->
    <_>
      <maxWeakCount>3</maxWeakCount>
      <stageThreshold>-6.6699546575546265e-01</stageThreshold>
      <weakClassifiers>
        <_>
          <internalNodes>
            0 -1 14 1.6829611733555794e-02</internalNodes>
          <leafValues>
            -7.5838923454284668e-01 9.6153843402862549e-01</leafValues></_>
        <_>
          <internalNodes>
            0 -1 12 7.0225249510258436e-04</internalNodes>
          <leafValues>
            -7.1555370092391968e-01 6.7489337921142578e-01</leafValues></_>
        <_>
          <internalNodes>
            0 -1 21 2.2182562388479710e-03</internalNodes>
          <leafValues>
            -5.8349955081939697e-01 9.0328919887542725e-01</leafValues></_></weakClassifiers></_>
    <!-- stage 1 -->
    <_>
      <maxWeakCount>3</maxWeakCount>
      <stageThreshold>-6.2263071537017822e-01</stageThreshold>
      <weakClassifiers>
        <_>
          <internalNodes>
            0 -1 4 1.8028561025857925e-02</internalNodes>
          <leafValues>
            -7.9487180709838867e-01 6.9148933887481689e-01</leafValues></_>
        <_>
          <internalNodes>
            0 -1 92 -1.1019898578524590e-02</internalNodes>
          <leafValues>
            7.2323811054229736e-01 -6.9036358594894409e-01</leafValues></_>
        <_>
          <internalNodes>
            0 -1 166 2.2225757129490376e-04</internalNodes>
          <leafValues>
            -5.5099701881408691e-01 8.7384778261184692e-01</leafValues></_></weakClassifiers></_>
    <!-- stage 2 -->
    <_>
      <maxWeakCount>3</maxWeakCount>
      <stageThreshold>-1.5306305885314941e-01</stageThreshold>
      <weakClassifiers>
        <_>
          <internalNodes>
            0 -1 82 1.0090766474604607e-02</internalNodes>
          <leafValues>
            -3.7234041094779968e-01 9.1452991962432861e-01</leafValues></_>
        <_>
          <internalNodes>
            0 -1 151 1.3864659704267979e-03</internalNodes>
          <leafValues>
            -6.4499425888061523e-01 6.6622841358184814e-01</leafValues></_>
        <_>
          <internalNodes>
            0 -1 132 1.2459047138690948e-03</internalNodes>
          <leafValues>
            -4.2259871959686279e-01 9.8719000816345215e-01</leafValues></_></weakClassifiers></_>
    <!-- stage 3 -->
    <_>
      <maxWeakCount>4</maxWeakCount>
      <stageThreshold>-6.6607421636581421e-01</stageThreshold>
      <weakClassifiers>
        <_>
          <internalNodes>
            0 -1 31 6.5666511654853821e-03</internalNodes>
          <leafValues>
            -4.7928994894027710e-01 8.6764705181121826e-01</leafValues></_>
        <_>
          <internalNodes>
            0 -1 163 6.9281063042581081e-04</internalNodes>
          <leafValues>
            -4.4361811876296997e-01 8.5770046710968018e-01</leafValues></_>
        <_>
          <internalNodes>
            0 -1 86 4.6818302944302559e-03</internalNodes>
          <leafValues>
            -4.3715429306030273e-01 7.5309658050537109e-01</leafValues></_>
        <_>
          <internalNodes>
            0 -1 138 2.7365749701857567e-03</internalNodes>
          <leafValues>
            -4.9626278877258301e-01 8.1399756669998169e-01</leafValues></_></weakClassifiers></_>
    <!-- stage 4 -->
    <_>
      <maxWeakCount>6</maxWeakCount>
      <stageThreshold>-3.8268601894378662e-01</stageThreshold>
      <weakClassifiers>
        <_>
          <internalNodes>
            0 -1 15 -8.5067879408597946e-03</internalNodes>
          <leafValues>
            -8.8764047622680664e-01 5.3703701496124268e-01</leafValues></_>
        <_>
          <internalNodes>
            0 -1 24 1.8533810973167419e-02</internalNodes>
          <leafValues>
            -5.9083515405654907e-01 7.3212832212448120e-01</leafValues></_>
        <_>
          <internalNodes>
            0 -1 114 6.6707376390695572e-04</internalNodes>
          <leafValues>
            -3.7475451827049255e-01 9.1467422246932983e-01</leafValues></_>
        <_>
          <internalNodes>
            0 -1 66 -4.9245115369558334e-03</internalNodes>
          <leafValues>
            9.1218203306198120e-01 -4.1950842738151550e-01</leafValues></_>
        <_>
          <internalNodes>
            0 -1 120 7.7505450462922454e-04</internalNodes>
          <leafValues>
            -3.2238808274269104e-01 9.1786438226699829e-01</leafValues></_>
        <_>
          <internalNodes>
            0 -1 111 7.9442595597356558e-04</internalNodes>
          <leafValues>
            -3.7134197354316711e-01 9.2301183938980103e-01</leafValues></_></weakClassifiers></_>
    <!-- stage 5 -->
    <_>
      <maxWeakCount>4</maxWeakCount>
      <stageThreshold>-3.3108460903167725e-01</stageThreshold>
      <weakClassifiers>
        <_>
          <internalNodes>
            0 -1 30 -4.7904709354043007e-03</internalNodes>
          <leafValues>
            8.0882352590560913e-01 -4.3195265531539917e-01</leafValues></_>
        <_>
          <internalNodes>
            0 -1 16 2.6999742258340120e-03</internalNodes>
          <leafValues>
            -4.0442776679992676e-01 7.8246241807937622e-01</leafValues></_>
        <_>
          <internalNodes>
            0 -1 65 7.0873242802917957e-03</internalNodes>
          <leafValues>
            -2.9835638403892517e-01 8.7020629644393921e-01</leafValues></_>
        <_>
          <internalNodes>
            0 -1 162 9.7019062377512455e-04</internalNodes>
          <leafValues>
            -3.6491045355796814e-01 8.1678897142410278e-01</leafValues></_></weakClassifiers></_>
    <!-- stage 6 -->
    <_>
      <maxWeakCount>6</maxWeakCount>
      <stageThreshold>-6.8874704837799072e-01</stageThreshold>
      <weakClassifiers>
        <_>
          <internalNodes>
            0 -1 69 2.5793723762035370e-03</internalNodes>
          <leafValues>
            -3.0158731341362000e-01 8.1034481525421143e-01</leafValues></_>
        <_>
          <internalNodes>
            0 -1 127 -1.1544417589902878e-02</internalNodes>
          <leafValues>
            4.8234164714813232e-01 -5.9112918376922607e-01</leafValues></_>
        <_>
          <internalNodes>
            0 -1 11 -3.0931936576962471e-02</internalNodes>
          <leafValues>
            -8.3470541238784790e-01 3.4606963396072388e-01</leafValues></_>
        <_>
          <internalNodes>
            0 -1 93 1.7696799710392952e-02</internalNodes>
          <leafValues>
            -3.5640105605125427e-01 9.2688626050949097e-01</leafValues></_>
        <_>
          <internalNodes>
            0 -1 56 3.2118940725922585e-04</internalNodes>
          <leafValues>
            -3.9430335164070129e-01 7.3926424980163574e-01</leafValues></_>
        <_>
          <internalNodes>
            0 -1 154 8.1820031628012657e-03</internalNodes>
          <leafValues>
            -4.6486663818359375e-01 7.6486027240753174e-01</leafValues></_></weakClassifiers></_>
    <!-- stage 7 -->
    <_>
      <maxWeakCount>6</maxWeakCount>
      <stageThreshold>-8.7649458646774292e-01</stageThreshold>
      <weakClassifiers>
        <_>
          <internalNodes>
            0 -1 125 -3.9892047643661499e-03</internalNodes>
          <leafValues>
            5.1269036531448364e-01 -5.9259259700775146e-01</leafValues></_>
        <_>
          <internalNodes>
            0 -1 55 -1.2124327477067709e-03</internalNodes>
          <leafValues>
            -7.8294640779495239e-01 3.8093602657318115e-01</leafValues></_>
        <_>
          <internalNodes>
            0 -1 3 2.8054531663656235e-02</internalNodes>
          <leafValues>
            -6.8100571632385254e-01 4.1274556517601013e-01</leafValues></_>
        <_>
          <internalNodes>
            0 -1 44 -4.0039829909801483e-02</internalNodes>
          <leafValues>
            -9.6150356531143188e-01 2.2790983319282532e-01</leafValues></_>
        <_>
          <internalNodes>
            0 -1 41 2.9351218836382031e-04</internalNodes>
          <leafValues>
            2.6268491148948669e-01 -8.9121842384338379e-01</leafValues></_>
        <_>
          <internalNodes>
            0 -1 128 3.8646953180432320e-03</internalNodes>
          <leafValues>
            -4.1582757234573364e-01 7.7633351087570190e-01</leafValues></_></weakClassifiers></_>
    <!-- stage 8 -->
    <_>
      <maxWeakCount>7</maxWeakCount>
      <stageThreshold>-3.5030043125152588e-01</stageThreshold>
      <weakClassifiers>
        <_>
          <internalNodes>
            0 -1 80 1.7014652490615845e-02</internalNodes>
          <leafValues>
            -3.1843575835227966e-01 7.4603176116943359e-01</leafValues></_>
        <_>
          <internalNodes>
            0 -1 50 2.5979615747928619e-03</internalNodes>
          <leafValues>
            -4.0432569384574890e-01 6.6409987211227417e-01</leafValues></_>
        <_>
          <internalNodes>
            0 -1 157 -7.8137610107660294e-03</internalNodes>
          <leafValues>
            6.7336750030517578e-01 -3.5402917861938477e-01</leafValues></_>
        <_>
          <internalNodes>
            0 -1 83 -2.0681474357843399e-02</internalNodes>
          <leafValues>
            -7.9542982578277588e-01 3.5853746533393860e-01</leafValues></_>
        <_>
          <internalNodes>
            0 -1 13 3.0276016332209110e-03</internalNodes>
          <leafValues>
            -7.8761583566665649e-01 2.9749777913093567e-01</leafValues></_>
        <_>
          <internalNodes>
            0 -1 97 -5.6326128542423248e-03</internalNodes>
          <leafValues>
            6.6326326131820679e-01 -4.0702864527702332e-01</leafValues></_>
        <_>
          <internalNodes>
            0 -1 60 -1.0484905913472176e-02</internalNodes>
          <leafValues>
            7.5831276178359985e-01 -4.6437132358551025e-01</leafValues></_></weakClassifiers></_>
    <!-- stage 9 -->
    <_>
      <maxWeakCount>4</maxWeakCount>
      <stageThreshold>-4.7102400660514832e-01</stageThreshold>
      <weakClassifiers>
        <_>
          <internalNodes>
            0 -1 39 -9.6982121467590332e-03</internalNodes>
          <leafValues>
            5.8579879999160767e-01 -4.5588234066963196e-01</leafValues></_>
        <_>
          <internalNodes>
            0 -1 119 1.1578877456486225e-03</internalNodes>
          <leafValues>
            -3.3348715305328369e-01 7.4439746141433716e-01</leafValues></_>
        <_>
          <internalNodes>
            0 -1 148 2.7114604017697275e-04</internalNodes>
          <leafValues>
            -3.4409245848655701e-01 6.9172269105911255e-01</leafValues></_>
        <_>
          <internalNodes>
            0 -1 142 7.5116235530003905e-04</internalNodes>
          <leafValues>
            -3.7337723374366760e-01 7.9557609558105469e-01</leafValues></_></weakClassifiers></_>
    <!-- stage 10 -->
    <_>
      <maxWeakCount>5</maxWeakCount>
      <stageThreshold>-7.3591953516006470e-01</stageThreshold>
      <weakClassifiers>
        <_>
          <internalNodes>
            0 -1 34 -3.4665472805500031e-02</internalNodes>
          <leafValues>
            7.9527556896209717e-01 -3.5955056548118591e-01</leafValues></_>
        <_>
          <internalNodes>
            0 -1 8 1.9633479416370392e-02</internalNodes>
          <leafValues>
            -6.8299669027328491e-01 4.8341131210327148e-01</leafValues></_>
        <_>
          <internalNodes>
            0 -1 149 -1.4097875356674194e-01</internalNodes>
          <leafValues>
            -6.8274772167205811e-01 4.3976435065269470e-01</leafValues></_>
        <_>
          <internalNodes>
            0 -1 91 2.6923732366412878e-04</internalNodes>
          <leafValues>
            3.9273121953010559e-01 -8.6901050806045532e-01</leafValues></_>
        <_>
          <internalNodes>
            0 -1 141 8.4448431152850389e-04</internalNodes>
          <leafValues>
            -4.1895231604576111e-01 7.7782273292541504e-01</leafValues></_></weakClassifiers></_>
    <!-- stage 11 -->
    <_>
      <maxWeakCount>7</maxWeakCount>
      <stageThreshold>-4.3821194767951965e-01</stageThreshold>
      <weakClassifiers>
        <_>
          <internalNodes>
            0 -1 71 1.7567444592714310e-03</internalNodes>
          <leafValues>
            3.6929461359977722e-01 -8.1250000000000000e-01</leafValues></_>
        <_>
          <internalNodes>
            0 -1 150 1.0491588618606329e-03</internalNodes>
          <leafValues>
            -3.0552563071250916e-01 7.7993333339691162e-01</leafValues></_>
        <_>
          <internalNodes>
            0 -1 155 1.0313480161130428e-03</internalNodes>
          <leafValues>
            -3.6836281418800354e-01 6.9656383991241455e-01</leafValues></_>
        <_>
          <internalNodes>
            0 -1 67 -1.2965102214366198e-03</internalNodes>
          <leafValues>
            -6.3072764873504639e-01 4.0559756755828857e-01</leafValues></_>
        <_>
          <internalNodes>
            0 -1 94 -5.5468827486038208e-04</internalNodes>
          <leafValues>
            3.4753432869911194e-01 -7.1760106086730957e-01</leafValues></_>
        <_>
          <internalNodes>
            0 -1 122 7.9366657882928848e-03</internalNodes>
          <leafValues>
            -3.7606415152549744e-01 7.0938229560852051e-01</leafValues></_>
        <_>
          <internalNodes>
            0 -1 63 4.5520132407546043e-03</internalNodes>
          <leafValues>
            -3.9381790161132812e-01 8.0267006158828735e-01</leafValues></_></weakClassifiers></_>
    <!-- stage 12 -->
    <_>
      <maxWeakCount>6</maxWeakCount>
      <stageThreshold>-1.0077227354049683e+00</stageThreshold>
      <weakClassifiers>
        <_>
          <internalNodes>
            0 -1 29 3.4169596619904041e-03</internalNodes>
          <leafValues>
            -3.9189189672470093e-01 6.0509556531906128e-01</leafValues></_>
        <_>
          <internalNodes>
            0 -1 131 -1.0788794315885752e-04</internalNodes>
          <leafValues>
            -8.3188605308532715e-01 3.0942830443382263e-01</leafValues></_>
        <_>
          <internalNodes>
            0 -1 164 5.4811313748359680e-04</internalNodes>
          <leafValues>
            -4.1414001584053040e-01 6.0809236764907837e-01</leafValues></_>
        <_>
          <internalNodes>
            0 -1 77 8.6056452710181475e-04</internalNodes>
          <leafValues>
            -3.8256296515464783e-01 6.2108331918716431e-01</leafValues></_>
        <_>
          <internalNodes>
            0 -1 53 -1.3918365584686399e-04</internalNodes>
          <leafValues>
            -8.7784659862518311e-01 2.9130646586418152e-01</leafValues></_>
        <_>
          <internalNodes>
            0 -1 102 1.3917279429733753e-03</internalNodes>
          <leafValues>
            -4.1986262798309326e-01 6.3271653652191162e-01</leafValues></_></weakClassifiers></_>
    <!-- stage 13 -->
    <_>
      <maxWeakCount>6</maxWeakCount>
      <stageThreshold>-7.3931306600570679e-01</stageThreshold>
      <weakClassifiers>
        <_>
          <internalNodes>
            0 -1 84 3.1889413367025554e-04</internalNodes>
          <leafValues>
            4.0611353516578674e-01 -7.3684209585189819e-01</leafValues></_>
        <_>
          <internalNodes>
            0 -1 89 4.5189894735813141e-02</internalNodes>
          <leafValues>
            -3.0031928420066833e-01 8.0753403902053833e-01</leafValues></_>
        <_>
          <internalNodes>
            0 -1 1 4.0285758674144745e-02</internalNodes>
          <leafValues>
            -7.3459100723266602e-01 3.9220643043518066e-01</leafValues></_>
        <_>
          <internalNodes>
            0 -1 75 5.3121969103813171e-03</internalNodes>
          <leafValues>
            -4.7473856806755066e-01 5.7859146595001221e-01</leafValues></_>
        <_>
          <internalNodes>
            0 -1 110 1.4475546777248383e-03</internalNodes>
          <leafValues>
            -4.4261109828948975e-01 6.8188822269439697e-01</leafValues></_>
        <_>
          <internalNodes>
            0 -1 108 -7.2208866477012634e-03</internalNodes>
          <leafValues>
            9.1922843456268311e-01 -2.8486180305480957e-01</leafValues></_></weakClassifiers></_>
    <!-- stage 14 -->
    <_>
      <maxWeakCount>5</maxWeakCount>
      <stageThreshold>-6.6474670171737671e-01</stageThreshold>
      <weakClassifiers>
        <_>
          <internalNodes>
            0 -1 19 -3.7342654541134834e-03</internalNodes>
          <leafValues>
            -9.6666663885116577e-01 3.8775509595870972e-01</leafValues></_>
        <_>
          <internalNodes>
            0 -1 43 -1.0537420399487019e-02</internalNodes>
          <leafValues>
            7.3324733972549438e-01 -4.3452140688896179e-01</leafValues></_>
        <_>
          <internalNodes>
            0 -1 57 -2.6301532052457333e-03</internalNodes>
          <leafValues>
            6.4867794513702393e-01 -3.7702876329421997e-01</leafValues></_>
        <_>
          <internalNodes>
            0 -1 112 8.9554087026044726e-05</internalNodes>
          <leafValues>
            3.5121649503707886e-01 -8.0206346511840820e-01</leafValues></_>
        <_>
          <internalNodes>
            0 -1 79 1.7714411951601505e-03</internalNodes>
          <leafValues>
            -4.0551507472991943e-01 8.8203346729278564e-01</leafValues></_></weakClassifiers></_>
    <!-- stage 15 -->
    <_>
      <maxWeakCount>4</maxWeakCount>
      <stageThreshold>-2.9393813014030457e-01</stageThreshold>
      <weakClassifiers>
        <_>
          <internalNodes>
            0 -1 90 1.0500492062419653e-03</internalNodes>
          <leafValues>
            -3.4545454382896423e-01 6.7142856121063232e-01</leafValues></_>
        <_>
          <internalNodes>
            0 -1 107 3.7114942097105086e-04</internalNodes>
          <leafValues>
            3.2252970337867737e-01 -9.4545310735702515e-01</leafValues></_>
        <_>
          <internalNodes>
            0 -1 28 -1.1763419024646282e-02</internalNodes>
          <leafValues>
            7.5697749853134155e-01 -3.6455193161964417e-01</leafValues></_>
        <_>
          <internalNodes>
            0 -1 85 -7.6018936932086945e-02</internalNodes>
          <leafValues>
            -7.8118145465850830e-01 3.4463831782341003e-01</leafValues></_></weakClassifiers></_>
    <!-- stage 16 -->
    <_>
      <maxWeakCount>5</maxWeakCount>
      <stageThreshold>-4.4810158014297485e-01</stageThreshold>
      <weakClassifiers>
        <_>
          <internalNodes>
            0 -1 134 5.9075863100588322e-03</internalNodes>
          <leafValues>
            -2.8176796436309814e-01 7.0967739820480347e-01</leafValues></_>
        <_>
          <internalNodes>
            0 -1 9 1.6207991866394877e-03</internalNodes>
          <leafValues>
            -6.4095205068588257e-01 4.2736420035362244e-01</leafValues></_>
        <_>
          <internalNodes>
            0 -1 58 1.4682555338367820e-03</internalNodes>
          <leafValues>
            2.8026878833770752e-01 -8.5450792312622070e-01</leafValues></_>
        <_>
          <internalNodes>
            0 -1 165 3.0900712590664625e-04</internalNodes>
          <leafValues>
            -4.2644327878952026e-01 5.4976028203964233e-01</leafValues></_>
        <_>
          <internalNodes>
            0 -1 76 8.9545007795095444e-03</internalNodes>
          <leafValues>
            -2.8895020484924316e-01 8.6026084423065186e-01</leafValues></_></weakClassifiers></_>
    <!-- stage 17 -->
    <_>
      <maxWeakCount>7</maxWeakCount>
      <stageThreshold>-5.2425754070281982e-01</stageThreshold>
      <weakClassifiers>
        <_>
          <internalNodes>
            0 -1 145 -6.6742533817887306e-04</internalNodes>
          <leafValues>
            7.5700932741165161e-01 -2.2222222387790680e-01</leafValues></_>
        <_>
          <internalNodes>
            0 -1 109 -1.9220899557694793e-03</internalNodes>
          <leafValues>
            -7.9140323400497437e-01 2.9174149036407471e-01</leafValues></_>
        <_>
          <internalNodes>
            0 -1 35 -1.7803316004574299e-03</internalNodes>
          <leafValues>
            8.3319008350372314e-01 -2.9839500784873962e-01</leafValues></_>
        <_>
          <internalNodes>
            0 -1 78 1.5101395547389984e-04</internalNodes>
          <leafValues>
            -3.8492703437805176e-01 6.0555678606033325e-01</leafValues></_>
        <_>
          <internalNodes>
            0 -1 59 -9.6740439767017961e-04</internalNodes>
          <leafValues>
            4.9750772118568420e-01 -5.3113490343093872e-01</leafValues></_>
        <_>
          <internalNodes>
            0 -1 143 -1.3227370567619801e-02</internalNodes>
          <leafValues>
            -8.8100969791412354e-01 2.5448238849639893e-01</leafValues></_>
        <_>
          <internalNodes>
            0 -1 140 1.0681705549359322e-02</internalNodes>
          <leafValues>
            -5.5853176116943359e-01 5.1358699798583984e-01</leafValues></_></weakClassifiers></_>
    <!-- stage 18 -->
    <_>
      <maxWeakCount>5</maxWeakCount>
      <stageThreshold>-7.4466741085052490e-01</stageThreshold>
      <weakClassifiers>
        <_>
          <internalNodes>
            0 -1 100 1.0537066555116326e-04</internalNodes>
          <leafValues>
            4.1025641560554504e-01 -8.3098590373992920e-01</leafValues></_>
        <_>
          <internalNodes>
            0 -1 105 -1.0121622122824192e-02</internalNodes>
          <leafValues>
            6.8902915716171265e-01 -3.6134165525436401e-01</leafValues></_>
        <_>
          <internalNodes>
            0 -1 88 2.8001377359032631e-03</internalNodes>
          <leafValues>
            2.7965903282165527e-01 -9.7025293111801147e-01</leafValues></_>
        <_>
          <internalNodes>
            0 -1 123 5.5003012530505657e-03</internalNodes>
          <leafValues>
            -3.6854493618011475e-01 8.2657700777053833e-01</leafValues></_>
        <_>
          <internalNodes>
            0 -1 130 4.1636792011559010e-03</internalNodes>
          <leafValues>
            -5.2122187614440918e-01 5.3654605150222778e-01</leafValues></_></weakClassifiers></_>
    <!-- stage 19 -->
    <_>
      <maxWeakCount>6</maxWeakCount>
      <stageThreshold>-5.3715467453002930e-01</stageThreshold>
      <weakClassifiers>
        <_>
          <internalNodes>
            0 -1 0 4.8668399453163147e-02</internalNodes>
          <leafValues>
            -5.2755904197692871e-01 5.8426964282989502e-01</leafValues></_>
        <_>
          <internalNodes>
            0 -1 38 4.4860062189400196e-03</internalNodes>
          <leafValues>
            -5.6543529033660889e-01 5.2270770072937012e-01</leafValues></_>
        <_>
          <internalNodes>
            0 -1 47 1.1451966129243374e-03</internalNodes>
          <leafValues>
            -4.2669710516929626e-01 5.6586563587188721e-01</leafValues></_>
        <_>
          <internalNodes>
            0 -1 147 1.4989287592470646e-03</internalNodes>
          <leafValues>
            -2.8396597504615784e-01 8.6496132612228394e-01</leafValues></_>
        <_>
          <internalNodes>
            0 -1 161 4.9162062350660563e-04</internalNodes>
          <leafValues>
            -3.2097193598747253e-01 6.9757515192031860e-01</leafValues></_>
        <_>
          <internalNodes>
            0 -1 129 -4.3179136700928211e-03</internalNodes>
          <leafValues>
            5.9491193294525146e-01 -4.1188028454780579e-01</leafValues></_></weakClassifiers></_>
    <!-- stage 20 -->
    <_>
      <maxWeakCount>6</maxWeakCount>
      <stageThreshold>-5.1041442155838013e-01</stageThreshold>
      <weakClassifiers>
        <_>
          <internalNodes>
            0 -1 17 2.0594755187630653e-03</internalNodes>
          <leafValues>
            -3.9726027846336365e-01 5.9748429059982300e-01</leafValues></_>
        <_>
          <internalNodes>
            0 -1 62 -1.1743782670237124e-04</internalNodes>
          <leafValues>
            -8.1042385101318359e-01 2.6375487446784973e-01</leafValues></_>
        <_>
          <internalNodes>
            0 -1 51 4.7698300331830978e-03</internalNodes>
          <leafValues>
            -3.4273493289947510e-01 7.0346695184707642e-01</leafValues></_>
        <_>
          <internalNodes>
            0 -1 64 2.2681411355733871e-03</internalNodes>
          <leafValues>
            -2.9738944768905640e-01 7.7079761028289795e-01</leafValues></_>
        <_>
          <internalNodes>
            0 -1 54 -3.5458956845104694e-03</internalNodes>
          <leafValues>
            6.4632660150527954e-01 -3.7320759892463684e-01</leafValues></_>
        <_>
          <internalNodes>
            0 -1 73 1.7833979800343513e-03</internalNodes>
          <leafValues>
            -3.3291351795196533e-01 6.6439980268478394e-01</leafValues></_></weakClassifiers></_>
    <!-- stage 21 -->
    <_>
      <maxWeakCount>6</maxWeakCount>
      <stageThreshold>-9.3112450838088989e-01</stageThreshold>
      <weakClassifiers>
        <_>
          <internalNodes>
            0 -1 61 4.0456699207425117e-03</internalNodes>
          <leafValues>
            4.0807175636291504e-01 -6.5853661298751831e-01</leafValues></_>
        <_>
          <internalNodes>
            0 -1 48 3.4525417722761631e-03</internalNodes>
          <leafValues>
            -2.7577185630798340e-01 8.6841660737991333e-01</leafValues></_>
        <_>
          <internalNodes>
            0 -1 101 -1.4885386452078819e-02</internalNodes>
          <leafValues>
            3.3285617828369141e-01 -7.6416945457458496e-01</leafValues></_>
        <_>
          <internalNodes>
            0 -1 133 3.0192290432751179e-03</internalNodes>
          <leafValues>
            -3.0026063323020935e-01 8.2448983192443848e-01</leafValues></_>
        <_>
          <internalNodes>
            0 -1 25 6.9925576448440552e-02</internalNodes>
          <leafValues>
            2.6741215586662292e-01 -9.2103016376495361e-01</leafValues></_>
        <_>
          <internalNodes>
            0 -1 136 3.6961666774004698e-03</internalNodes>
          <leafValues>
            -2.9682379961013794e-01 7.6004326343536377e-01</leafValues></_></weakClassifiers></_>
    <!-- stage 22 -->
    <_>
      <maxWeakCount>7</maxWeakCount>
      <stageThreshold>-1.1369444131851196e+00</stageThreshold>
      <weakClassifiers>
        <_>
          <internalNodes>
            0 -1 23 3.5588291939347982e-04</internalNodes>
          <leafValues>
            3.5897436738014221e-01 -6.6197180747985840e-01</leafValues></_>
        <_>
          <internalNodes>
            0 -1 40 8.3945039659738541e-03</internalNodes>
          <leafValues>
            -2.9201340675354004e-01 6.9367104768753052e-01</leafValues></_>
        <_>
          <internalNodes>
            0 -1 68 9.5226612756960094e-05</internalNodes>
          <leafValues>
            2.3536677658557892e-01 -9.5013892650604248e-01</leafValues></_>
        <_>
          <internalNodes>
            0 -1 37 -1.6260154545307159e-02</internalNodes>
          <leafValues>
            6.6151887178421021e-01 -3.5677704215049744e-01</leafValues></_>
        <_>
          <internalNodes>
            0 -1 160 1.2039481662213802e-03</internalNodes>
          <leafValues>
            -4.3574956059455872e-01 5.6059151887893677e-01</leafValues></_>
        <_>
          <internalNodes>
            0 -1 115 3.3913636580109596e-03</internalNodes>
          <leafValues>
            -2.9403460025787354e-01 6.7908847332000732e-01</leafValues></_>
        <_>
          <internalNodes>
            0 -1 121 1.3017881428822875e-03</internalNodes>
          <leafValues>
            -3.5271090269088745e-01 6.8693721294403076e-01</leafValues></_></weakClassifiers></_>
    <!-- stage 23 -->
    <_>
      <maxWeakCount>7</maxWeakCount>
      <stageThreshold>-4.4254440069198608e-01</stageThreshold>
      <weakClassifiers>
        <_>
          <internalNodes>
            0 -1 33 5.2962512709200382e-03</internalNodes>
          <leafValues>
            -2.6966291666030884e-01 6.6929131746292114e-01</leafValues></_>
        <_>
          <internalNodes>
            0 -1 126 -1.6422938555479050e-02</internalNodes>
          <leafValues>
            4.9968215823173523e-01 -5.0024735927581787e-01</leafValues></_>
        <_>
          <internalNodes>
            0 -1 81 1.0694644879549742e-03</internalNodes>
          <leafValues>
            -3.3061322569847107e-01 6.2736725807189941e-01</leafValues></_>
        <_>
          <internalNodes>
            0 -1 152 4.0923077613115311e-03</internalNodes>
          <leafValues>
            -3.5429981350898743e-01 6.6331642866134644e-01</leafValues></_>
        <_>
          <internalNodes>
            0 -1 135 -4.7323618084192276e-02</internalNodes>
          <leafValues>
            -7.3694097995758057e-01 3.1359976530075073e-01</leafValues></_>
        <_>
          <internalNodes>
            0 -1 20 -2.1440419368445873e-04</internalNodes>
          <leafValues>
            -8.7993359565734863e-01 2.8702297806739807e-01</leafValues></_>
        <_>
          <internalNodes>
            0 -1 146 -1.3654041104018688e-03</internalNodes>
          <leafValues>
            7.5015985965728760e-01 -3.4637272357940674e-01</leafValues></_></weakClassifiers></_>
    <!-- stage 24 -->
    <_>
      <maxWeakCount>7</maxWeakCount>
      <stageThreshold>-6.1240321397781372e-01</stageThreshold>
      <weakClassifiers>
        <_>
          <internalNodes>
            0 -1 2 -4.2452821508049965e-03</internalNodes>
          <leafValues>
            -8.2352942228317261e-01 3.9240506291389465e-01</leafValues></_>
        <_>
          <internalNodes>
            0 -1 49 -1.1992735788226128e-02</internalNodes>
          <leafValues>
            -6.4831036329269409e-01 3.1458327174186707e-01</leafValues></_>
        <_>
          <internalNodes>
            0 -1 6 5.5788783356547356e-04</internalNodes>
          <leafValues>
            -4.7626629471778870e-01 5.2177876234054565e-01</leafValues></_>
        <_>
          <internalNodes>
            0 -1 104 5.3329212823882699e-04</internalNodes>
          <leafValues>
            2.3479923605918884e-01 -8.9045155048370361e-01</leafValues></_>
        <_>
          <internalNodes>
            0 -1 52 -1.2621901929378510e-02</internalNodes>
          <leafValues>
            -8.8334292173385620e-01 2.0928917825222015e-01</leafValues></_>
        <_>
          <internalNodes>
            0 -1 74 2.1600006148219109e-03</internalNodes>
          <leafValues>
            -3.3946898579597473e-01 7.0532321929931641e-01</leafValues></_>
        <_>
          <internalNodes>
            0 -1 139 -7.5241160811856389e-04</internalNodes>
          <leafValues>
            -8.5599976778030396e-01 2.6818975806236267e-01</leafValues></_></weakClassifiers></_>
    <!-- stage 25 -->
    <_>
      <maxWeakCount>7</maxWeakCount>
      <stageThreshold>-5.5939018726348877e-01</stageThreshold>
      <weakClassifiers>
        <_>
          <internalNodes>
            0 -1 22 -1.3425697034108452e-05</internalNodes>
          <leafValues>
            5.6687897443771362e-01 -3.5135135054588318e-01</leafValues></_>
        <_>
          <internalNodes>
            0 -1 87 1.2464752420783043e-02</internalNodes>
          <leafValues>
            -3.9401283860206604e-01 5.4903477430343628e-01</leafValues></_>
        <_>
          <internalNodes>
            0 -1 156 3.4309120383113623e-03</internalNodes>
          <leafValues>
            -4.2420789599418640e-01 4.6788597106933594e-01</leafValues></_>
        <_>
          <internalNodes>
            0 -1 153 -9.1136625269427896e-04</internalNodes>
          <leafValues>
            6.3786441087722778e-01 -3.6412113904953003e-01</leafValues></_>
        <_>
          <internalNodes>
            0 -1 70 -1.2692619930021465e-04</internalNodes>
          <leafValues>
            -8.6690229177474976e-01 2.7817419171333313e-01</leafValues></_>
        <_>
          <internalNodes>
            0 -1 116 -1.5412573702633381e-03</internalNodes>
          <leafValues>
            5.8207732439041138e-01 -3.8315498828887939e-01</leafValues></_>
        <_>
          <internalNodes>
            0 -1 42 -1.4663930051028728e-04</internalNodes>
          <leafValues>
            -5.9392154216766357e-01 4.1403609514236450e-01</leafValues></_></weakClassifiers></_>
    <!-- stage 26 -->
    <_>
      <maxWeakCount>6</maxWeakCount>
      <stageThreshold>-7.8633940219879150e-01</stageThreshold>
      <weakClassifiers>
        <_>
          <internalNodes>
            0 -1 45 -3.7056314758956432e-03</internalNodes>
          <leafValues>
            5.8940398693084717e-01 -3.3766233921051025e-01</leafValues></_>
        <_>
          <internalNodes>
            0 -1 36 2.1481614094227552e-03</internalNodes>
          <leafValues>
            -5.2495574951171875e-01 4.4548469781875610e-01</leafValues></_>
        <_>
          <internalNodes>
            0 -1 95 -1.6321914736181498e-03</internalNodes>
          <leafValues>
            6.3877940177917480e-01 -3.0182960629463196e-01</leafValues></_>
        <_>
          <internalNodes>
            0 -1 158 -4.5149857760407031e-04</internalNodes>
          <leafValues>
            5.2110397815704346e-01 -4.1469803452491760e-01</leafValues></_>
        <_>
          <internalNodes>
            0 -1 18 1.9464714452624321e-02</internalNodes>
          <leafValues>
            -4.0995401144027710e-01 5.5294978618621826e-01</leafValues></_>
        <_>
          <internalNodes>
            0 -1 106 -8.4166126325726509e-03</internalNodes>
          <leafValues>
            -9.1910803318023682e-01 2.6695835590362549e-01</leafValues></_></weakClassifiers></_>
    <!-- stage 27 -->
    <_>
      <maxWeakCount>7</maxWeakCount>
      <stageThreshold>-1.2232253551483154e+00</stageThreshold>
      <weakClassifiers>
        <_>
          <internalNodes>
            0 -1 7 6.8572005257010460e-03</internalNodes>
          <leafValues>
            -4.3511450290679932e-01 5.4022985696792603e-01</leafValues></_>
        <_>
          <internalNodes>
            0 -1 26 -8.3813164383172989e-03</internalNodes>
          <leafValues>
            -5.7974654436111450e-01 4.0079563856124878e-01</leafValues></_>
        <_>
          <internalNodes>
            0 -1 137 -1.7839920474216342e-04</internalNodes>
          <leafValues>
            -9.0213292837142944e-01 2.1572957932949066e-01</leafValues></_>
        <_>
          <internalNodes>
            0 -1 144 1.1779320193454623e-03</internalNodes>
          <leafValues>
            -3.6142310500144958e-01 5.6752127408981323e-01</leafValues></_>
        <_>
          <internalNodes>
            0 -1 117 -4.9955649301409721e-03</internalNodes>
          <leafValues>
            7.2070622444152832e-01 -2.7302399277687073e-01</leafValues></_>
        <_>
          <internalNodes>
            0 -1 10 3.1334366649389267e-02</internalNodes>
          <leafValues>
            -4.6675673127174377e-01 4.8670956492424011e-01</leafValues></_>
        <_>
          <internalNodes>
            0 -1 118 -1.3920610072091222e-03</internalNodes>
          <leafValues>
            7.6236182451248169e-01 -3.1662023067474365e-01</leafValues></_></weakClassifiers></_>
    <!-- stage 28 -->
    <_>
      <maxWeakCount>6</maxWeakCount>
      <stageThreshold>-3.5328441858291626e-01</stageThreshold>
      <weakClassifiers>
        <_>
          <internalNodes>
            0 -1 98 -1.3747819699347019e-02</internalNodes>
          <leafValues>
            7.5700932741165161e-01 -2.2222222387790680e-01</leafValues></_>
        <_>
          <internalNodes>
            0 -1 113 4.6154198935255408e-04</internalNodes>
          <leafValues>
            3.1653925776481628e-01 -7.0872360467910767e-01</leafValues></_>
        <_>
          <internalNodes>
            0 -1 159 1.1559122940525413e-03</internalNodes>
          <leafValues>
            -4.0041756629943848e-01 4.4656613469123840e-01</leafValues></_>
        <_>
          <internalNodes>
            0 -1 46 1.3450303673744202e-01</internalNodes>
          <leafValues>
            2.6373651623725891e-01 -7.4323153495788574e-01</leafValues></_>
        <_>
          <internalNodes>
            0 -1 103 7.2918282821774483e-03</internalNodes>
          <leafValues>
            -3.9024651050567627e-01 5.6483930349349976e-01</leafValues></_>
        <_>
          <internalNodes>
            0 -1 32 -1.1382852494716644e-01</internalNodes>
          <leafValues>
            3.0948752164840698e-01 -8.4740054607391357e-01</leafValues></_></weakClassifiers></_>
    <!-- stage 29 -->
    <_>
      <maxWeakCount>6</maxWeakCount>
      <stageThreshold>-7.1291142702102661e-01</stageThreshold>
      <weakClassifiers>
        <_>
          <internalNodes>
            0 -1 99 -3.2131141051650047e-04</internalNodes>
          <leafValues>
            -5.4000002145767212e-01 4.4390243291854858e-01</leafValues></_>
        <_>
          <internalNodes>
            0 -1 27 1.4145337627269328e-04</internalNodes>
          <leafValues>
            3.6633908748626709e-01 -7.8750294446945190e-01</leafValues></_>
        <_>
          <internalNodes>
            0 -1 72 5.2630470599979162e-04</internalNodes>
          <leafValues>
            3.0340763926506042e-01 -9.0787106752395630e-01</leafValues></_>
        <_>
          <internalNodes>
            0 -1 5 -1.3262268621474504e-03</internalNodes>
          <leafValues>
            7.8831547498703003e-01 -4.0572476387023926e-01</leafValues></_>
        <_>
          <internalNodes>
            0 -1 124 -5.5101662874221802e-03</internalNodes>
          <leafValues>
            4.9396198987960815e-01 -5.7948768138885498e-01</leafValues></_>
        <_>
          <internalNodes>
            0 -1 96 -1.1488387099234387e-04</internalNodes>
          <leafValues>
            -7.0351916551589966e-01 4.7122797369956970e-01</leafValues></_></weakClassifiers></_></stages>
  <features>
    <_>
      <rects>
        <_>
          0 1 70 17 -1.</_>
        <_>
          35 1 35 17 2.</_></rects>
      <tilted>0</tilted></_>
    <_>
      <rects>
        <_>
          0 3 52 16 -1.</_>
        <_>
          13 3 26 16 2.</_></rects>
      <tilted>0</tilted></_>
    <_>
      <rects>
        <_>
          0 3 64 17 -1.</_>
        <_>
          16 3 32 17 2.</_></rects>
      <tilted>0</tilted></_>
    <_>
      <rects>
        <_>
          0 4 22 15 -1.</_>
        <_>
          11 4 11 15 2.</_></rects>
      <tilted>0</tilted></_>
    <_>
      <rects>
        <_>
          0 5 18 12 -1.</_>
        <_>
          9 5 9 12 2.</_></rects>
      <tilted>0</tilted></_>
    <_>
      <rects>
        <_>
          0 6 30 2 -1.</_>
        <_>
          0 6 15 1 2.</_>
        <_>
          15 7 15 1 2.</_></rects>
      <tilted>0</tilted></_>
    <_>
      <rects>
        <_>
          0 14 6 2 -1.</_>
        <_>
          3 14 3 2 2.</_></rects>
      <tilted>0</tilted></_>
    <_>
      <rects>
        <_>
          0 15 16 4 -1.</_>
        <_>
          8 15 8 4 2.</_></rects>
      <tilted>0</tilted></_>
    <_>
      <rects>
        <_>
          1 5 16 11 -1.</_>
        <_>
          9 5 8 11 2.</_></rects>
      <tilted>0</tilted></_>
    <_>
      <rects>
        <_>
          1 9 10 3 -1.</_>
        <_>
          6 9 5 3 2.</_></rects>
      <tilted>0</tilted></_>
    <_>
      <rects>
        <_>
          1 9 42 9 -1.</_>
        <_>
          22 9 21 9 2.</_></rects>
      <tilted>0</tilted></_>
    <_>
      <rects>
        <_>
          1 11 6 9 -1.</_>
        <_>
          1 14 6 3 2.</_></rects>
      <tilted>0</tilted></_>
    <_>
      <rects>
        <_>
          1 13 50 1 -1.</_>
        <_>
          26 13 25 1 2.</_></rects>
      <tilted>0</tilted></_>
    <_>
      <rects>
        <_>
          2 0 56 13 -1.</_>
        <_>
          16 0 28 13 2.</_></rects>
      <tilted>0</tilted></_>
    <_>
      <rects>
        <_>
          2 2 12 18 -1.</_>
        <_>
          8 2 6 18 2.</_></rects>
      <tilted>0</tilted></_>
    <_>
      <rects>
        <_>
          2 6 1 12 -1.</_>
        <_>
          2 10 1 4 2.</_></rects>
      <tilted>0</tilted></_>
    <_>
      <rects>
        <_>
          2 11 6 8 -1.</_>
        <_>
          2 13 6 4 2.</_></rects>
      <tilted>0</tilted></_>
    <_>
      <rects>
        <_>
          3 8 4 12 -1.</_>
        <_>
          3 11 4 6 2.</_></rects>
      <tilted>0</tilted></_>
    <_>
      <rects>
        <_>
          3 13 38 6 -1.</_>
        <_>
          22 13 19 6 2.</_></rects>
      <tilted>0</tilted></_>
    <_>
      <rects>
        <_>
          3 16 20 4 -1.</_>
        <_>
          8 16 10 4 2.</_></rects>
      <tilted>0</tilted></_>
    <_>
      <rects>
        <_>
          4 2 2 4 -1.</_>
        <_>
          5 2 1 4 2.</_></rects>
      <tilted>0</tilted></_>
    <_>
      <rects>
        <_>
          4 8 8 5 -1.</_>
        <_>
          8 8 4 5 2.</_></rects>
      <tilted>0</tilted></_>
    <_>
      <rects>
        <_>
          4 14 4 6 -1.</_>
        <_>
          6 14 2 6 2.</_></rects>
      <tilted>0</tilted></_>
    <_>
      <rects>
        <_>
          5 1 2 10 -1.</_>
        <_>
          5 1 1 5 2.</_>
        <_>
          6 6 1 5 2.</_></rects>
      <tilted>0</tilted></_>
    <_>
      <rects>
        <_>
          5 2 8 17 -1.</_>
        <_>
          9 2 4 17 2.</_></rects>
      <tilted>0</tilted></_>
    <_>
      <rects>
        <_>
          5 6 76 6 -1.</_>
        <_>
          24 6 38 6 2.</_></rects>
      <tilted>0</tilted></_>
    <_>
      <rects>
        <_>
          5 10 82 3 -1.</_>
        <_>
          46 10 41 3 2.</_></rects>
      <tilted>0</tilted></_>
    <_>
      <rects>
        <_>
          5 16 2 4 -1.</_>
        <_>
          6 16 1 4 2.</_></rects>
      <tilted>0</tilted></_>
    <_>
      <rects>
        <_>
          5 18 78 2 -1.</_>
        <_>
          5 19 78 1 2.</_></rects>
      <tilted>0</tilted></_>
    <_>
      <rects>
        <_>
          6 8 6 3 -1.</_>
        <_>
          9 8 3 3 2.</_></rects>
      <tilted>0</tilted></_>
    <_>
      <rects>
        <_>
          6 18 78 2 -1.</_>
        <_>
          6 19 78 1 2.</_></rects>
      <tilted>0</tilted></_>
    <_>
      <rects>
        <_>
          7 0 8 17 -1.</_>
        <_>
          9 0 4 17 2.</_></rects>
      <tilted>0</tilted></_>
    <_>
      <rects>
        <_>
          7 6 57 6 -1.</_>
        <_>
          26 6 19 6 2.</_></rects>
      <tilted>0</tilted></_>
    <_>
      <rects>
        <_>
          8 16 9 3 -1.</_>
        <_>
          11 17 3 1 9.</_></rects>
      <tilted>0</tilted></_>
    <_>
      <rects>
        <_>
          8 16 74 4 -1.</_>
        <_>
          8 18 74 2 2.</_></rects>
      <tilted>0</tilted></_>
    <_>
      <rects>
        <_>
          9 2 26 2 -1.</_>
        <_>
          9 3 26 1 2.</_></rects>
      <tilted>0</tilted></_>
    <_>
      <rects>
        <_>
          9 6 6 8 -1.</_>
        <_>
          11 8 2 8 3.</_></rects>
      <tilted>1</tilted></_>
    <_>
      <rects>
        <_>
          9 14 72 6 -1.</_>
        <_>
          9 14 36 3 2.</_>
        <_>
          45 17 36 3 2.</_></rects>
      <tilted>0</tilted></_>
    <_>
      <rects>
        <_>
          10 5 4 6 -1.</_>
        <_>
          10 5 4 3 2.</_></rects>
      <tilted>1</tilted></_>
    <_>
      <rects>
        <_>
          10 7 28 9 -1.</_>
        <_>
          17 7 14 9 2.</_></rects>
      <tilted>0</tilted></_>
    <_>
      <rects>
        <_>
          10 15 25 4 -1.</_>
        <_>
          10 16 25 2 2.</_></rects>
      <tilted>0</tilted></_>
    <_>
      <rects>
        <_>
          11 0 4 2 -1.</_>
        <_>
          13 0 2 2 2.</_></rects>
      <tilted>0</tilted></_>
    <_>
      <rects>
        <_>
          11 1 8 1 -1.</_>
        <_>
          13 1 4 1 2.</_></rects>
      <tilted>0</tilted></_>
    <_>
      <rects>
        <_>
          11 1 12 17 -1.</_>
        <_>
          14 1 6 17 2.</_></rects>
      <tilted>0</tilted></_>
    <_>
      <rects>
        <_>
          11 4 45 9 -1.</_>
        <_>
          26 7 15 3 9.</_></rects>
      <tilted>0</tilted></_>
    <_>
      <rects>
        <_>
          11 6 12 11 -1.</_>
        <_>
          14 6 6 11 2.</_></rects>
      <tilted>0</tilted></_>
    <_>
      <rects>
        <_>
          12 4 69 9 -1.</_>
        <_>
          35 7 23 3 9.</_></rects>
      <tilted>0</tilted></_>
    <_>
      <rects>
        <_>
          12 6 3 10 -1.</_>
        <_>
          13 7 1 10 3.</_></rects>
      <tilted>1</tilted></_>
    <_>
      <rects>
        <_>
          12 16 17 2 -1.</_>
        <_>
          12 17 17 1 2.</_></rects>
      <tilted>0</tilted></_>
    <_>
      <rects>
        <_>
          13 10 64 3 -1.</_>
        <_>
          45 10 32 3 2.</_></rects>
      <tilted>0</tilted></_>
    <_>
      <rects>
        <_>
          13 13 1 6 -1.</_>
        <_>
          13 13 1 3 2.</_></rects>
      <tilted>1</tilted></_>
    <_>
      <rects>
        <_>
          15 3 12 15 -1.</_>
        <_>
          18 3 6 15 2.</_></rects>
      <tilted>0</tilted></_>
    <_>
      <rects>
        <_>
          15 8 44 7 -1.</_>
        <_>
          26 8 22 7 2.</_></rects>
      <tilted>0</tilted></_>
    <_>
      <rects>
        <_>
          16 0 4 2 -1.</_>
        <_>
          17 0 2 2 2.</_></rects>
      <tilted>0</tilted></_>
    <_>
      <rects>
        <_>
          16 1 8 12 -1.</_>
        <_>
          18 1 4 12 2.</_></rects>
      <tilted>0</tilted></_>
    <_>
      <rects>
        <_>
          16 14 26 3 -1.</_>
        <_>
          29 14 13 3 2.</_></rects>
      <tilted>0</tilted></_>
    <_>
      <rects>
        <_>
          16 16 3 4 -1.</_>
        <_>
          16 17 3 2 2.</_></rects>
      <tilted>0</tilted></_>
    <_>
      <rects>
        <_>
          17 0 2 17 -1.</_>
        <_>
          17 0 1 17 2.</_></rects>
      <tilted>1</tilted></_>
    <_>
      <rects>
        <_>
          17 0 16 3 -1.</_>
        <_>
          21 0 8 3 2.</_></rects>
      <tilted>0</tilted></_>
    <_>
      <rects>
        <_>
          18 14 20 6 -1.</_>
        <_>
          23 14 10 6 2.</_></rects>
      <tilted>0</tilted></_>
    <_>
      <rects>
        <_>
          18 17 60 2 -1.</_>
        <_>
          18 18 60 1 2.</_></rects>
      <tilted>0</tilted></_>
    <_>
      <rects>
        <_>
          19 0 24 4 -1.</_>
        <_>
          25 0 12 4 2.</_></rects>
      <tilted>0</tilted></_>
    <_>
      <rects>
        <_>
          19 1 4 2 -1.</_>
        <_>
          20 1 2 2 2.</_></rects>
      <tilted>0</tilted></_>
    <_>
      <rects>
        <_>
          19 6 6 3 -1.</_>
        <_>
          21 7 2 1 9.</_></rects>
      <tilted>0</tilted></_>
    <_>
      <rects>
        <_>
          19 6 4 10 -1.</_>
        <_>
          19 6 2 5 2.</_>
        <_>
          21 11 2 5 2.</_></rects>
      <tilted>0</tilted></_>
    <_>
      <rects>
        <_>
          19 7 6 6 -1.</_>
        <_>
          21 9 2 2 9.</_></rects>
      <tilted>0</tilted></_>
    <_>
      <rects>
        <_>
          19 16 45 4 -1.</_>
        <_>
          19 17 45 2 2.</_></rects>
      <tilted>0</tilted></_>
    <_>
      <rects>
        <_>
          20 0 24 10 -1.</_>
        <_>
          20 0 12 5 2.</_>
        <_>
          32 5 12 5 2.</_></rects>
      <tilted>0</tilted></_>
    <_>
      <rects>
        <_>
          20 19 4 1 -1.</_>
        <_>
          21 19 2 1 2.</_></rects>
      <tilted>0</tilted></_>
    <_>
      <rects>
        <_>
          21 14 3 6 -1.</_>
        <_>
          22 16 1 2 9.</_></rects>
      <tilted>0</tilted></_>
    <_>
      <rects>
        <_>
          21 18 4 2 -1.</_>
        <_>
          22 18 2 2 2.</_></rects>
      <tilted>0</tilted></_>
    <_>
      <rects>
        <_>
          22 18 16 2 -1.</_>
        <_>
          26 18 8 2 2.</_></rects>
      <tilted>0</tilted></_>
    <_>
      <rects>
        <_>
          23 0 8 2 -1.</_>
        <_>
          25 0 4 2 2.</_></rects>
      <tilted>0</tilted></_>
    <_>
      <rects>
        <_>
          23 7 12 1 -1.</_>
        <_>
          29 7 6 1 2.</_></rects>
      <tilted>0</tilted></_>
    <_>
      <rects>
        <_>
          23 10 8 4 -1.</_>
        <_>
          25 10 4 4 2.</_></rects>
      <tilted>0</tilted></_>
    <_>
      <rects>
        <_>
          23 13 18 4 -1.</_>
        <_>
          32 13 9 4 2.</_></rects>
      <tilted>0</tilted></_>
    <_>
      <rects>
        <_>
          24 3 45 2 -1.</_>
        <_>
          24 4 45 1 2.</_></rects>
      <tilted>0</tilted></_>
    <_>
      <rects>
        <_>
          24 6 4 11 -1.</_>
        <_>
          25 6 2 11 2.</_></rects>
      <tilted>0</tilted></_>
    <_>
      <rects>
        <_>
          25 9 4 2 -1.</_>
        <_>
          26 9 2 2 2.</_></rects>
      <tilted>0</tilted></_>
    <_>
      <rects>
        <_>
          26 0 20 2 -1.</_>
        <_>
          26 1 20 1 2.</_></rects>
      <tilted>0</tilted></_>
    <_>
      <rects>
        <_>
          26 0 61 4 -1.</_>
        <_>
          26 2 61 2 2.</_></rects>
      <tilted>0</tilted></_>
    <_>
      <rects>
        <_>
          26 3 9 3 -1.</_>
        <_>
          25 4 9 1 3.</_></rects>
      <tilted>1</tilted></_>
    <_>
      <rects>
        <_>
          26 6 18 3 -1.</_>
        <_>
          32 7 6 1 9.</_></rects>
      <tilted>0</tilted></_>
    <_>
      <rects>
        <_>
          26 7 52 4 -1.</_>
        <_>
          52 7 26 4 2.</_></rects>
      <tilted>0</tilted></_>
    <_>
      <rects>
        <_>
          28 0 8 2 -1.</_>
        <_>
          30 0 4 2 2.</_></rects>
      <tilted>0</tilted></_>
    <_>
      <rects>
        <_>
          28 7 12 9 -1.</_>
        <_>
          32 7 4 9 2.</_></rects>
      <tilted>0</tilted></_>
    <_>
      <rects>
        <_>
          29 12 12 3 -1.</_>
        <_>
          33 13 4 1 9.</_></rects>
      <tilted>0</tilted></_>
    <_>
      <rects>
        <_>
          29 13 12 6 -1.</_>
        <_>
          33 15 4 2 9.</_></rects>
      <tilted>0</tilted></_>
    <_>
      <rects>
        <_>
          30 0 16 3 -1.</_>
        <_>
          34 0 8 3 2.</_></rects>
      <tilted>0</tilted></_>
    <_>
      <rects>
        <_>
          30 0 17 10 -1.</_>
        <_>
          30 5 17 5 2.</_></rects>
      <tilted>0</tilted></_>
    <_>
      <rects>
        <_>
          30 9 6 3 -1.</_>
        <_>
          32 10 2 1 9.</_></rects>
      <tilted>0</tilted></_>
    <_>
      <rects>
        <_>
          30 19 4 1 -1.</_>
        <_>
          32 19 2 1 2.</_></rects>
      <tilted>0</tilted></_>
    <_>
      <rects>
        <_>
          31 2 36 18 -1.</_>
        <_>
          40 2 18 18 2.</_></rects>
      <tilted>0</tilted></_>
    <_>
      <rects>
        <_>
          31 2 39 4 -1.</_>
        <_>
          31 4 39 2 2.</_></rects>
      <tilted>0</tilted></_>
    <_>
      <rects>
        <_>
          31 13 36 7 -1.</_>
        <_>
          40 13 18 7 2.</_></rects>
      <tilted>0</tilted></_>
    <_>
      <rects>
        <_>
          31 15 28 2 -1.</_>
        <_>
          31 15 14 1 2.</_>
        <_>
          45 16 14 1 2.</_></rects>
      <tilted>0</tilted></_>
    <_>
      <rects>
        <_>
          32 13 4 6 -1.</_>
        <_>
          33 13 2 6 2.</_></rects>
      <tilted>0</tilted></_>
    <_>
      <rects>
        <_>
          32 15 33 4 -1.</_>
        <_>
          32 16 33 2 2.</_></rects>
      <tilted>0</tilted></_>
    <_>
      <rects>
        <_>
          33 5 12 8 -1.</_>
        <_>
          39 5 6 8 2.</_></rects>
      <tilted>0</tilted></_>
    <_>
      <rects>
        <_>
          33 14 3 2 -1.</_>
        <_>
          33 15 3 1 2.</_></rects>
      <tilted>0</tilted></_>
    <_>
      <rects>
        <_>
          33 17 2 2 -1.</_>
        <_>
          34 17 1 2 2.</_></rects>
      <tilted>0</tilted></_>
    <_>
      <rects>
        <_>
          35 4 21 2 -1.</_>
        <_>
          42 4 7 2 2.</_></rects>
      <tilted>0</tilted></_>
    <_>
      <rects>
        <_>
          35 10 6 3 -1.</_>
        <_>
          34 11 6 1 3.</_></rects>
      <tilted>1</tilted></_>
    <_>
      <rects>
        <_>
          35 13 12 3 -1.</_>
        <_>
          39 14 4 1 9.</_></rects>
      <tilted>0</tilted></_>
    <_>
      <rects>
        <_>
          35 17 4 2 -1.</_>
        <_>
          36 17 2 2 2.</_></rects>
      <tilted>0</tilted></_>
    <_>
      <rects>
        <_>
          36 2 12 15 -1.</_>
        <_>
          39 2 6 15 2.</_></rects>
      <tilted>0</tilted></_>
    <_>
      <rects>
        <_>
          36 16 24 4 -1.</_>
        <_>
          42 16 12 4 2.</_></rects>
      <tilted>0</tilted></_>
    <_>
      <rects>
        <_>
          37 0 4 3 -1.</_>
        <_>
          38 0 2 3 2.</_></rects>
      <tilted>0</tilted></_>
    <_>
      <rects>
        <_>
          42 7 8 7 -1.</_>
        <_>
          44 7 4 7 2.</_></rects>
      <tilted>0</tilted></_>
    <_>
      <rects>
        <_>
          44 18 16 2 -1.</_>
        <_>
          48 18 8 2 2.</_></rects>
      <tilted>0</tilted></_>
    <_>
      <rects>
        <_>
          45 6 4 2 -1.</_>
        <_>
          46 7 2 2 2.</_></rects>
      <tilted>1</tilted></_>
    <_>
      <rects>
        <_>
          46 8 4 4 -1.</_>
        <_>
          47 8 2 4 2.</_></rects>
      <tilted>0</tilted></_>
    <_>
      <rects>
        <_>
          46 19 4 1 -1.</_>
        <_>
          47 19 2 1 2.</_></rects>
      <tilted>0</tilted></_>
    <_>
      <rects>
        <_>
          46 19 12 1 -1.</_>
        <_>
          49 19 6 1 2.</_></rects>
      <tilted>0</tilted></_>
    <_>
      <rects>
        <_>
          47 10 4 5 -1.</_>
        <_>
          48 10 2 5 2.</_></rects>
      <tilted>0</tilted></_>
    <_>
      <rects>
        <_>
          47 11 6 3 -1.</_>
        <_>
          49 12 2 1 9.</_></rects>
      <tilted>0</tilted></_>
    <_>
      <rects>
        <_>
          47 11 12 2 -1.</_>
        <_>
          50 11 6 2 2.</_></rects>
      <tilted>0</tilted></_>
    <_>
      <rects>
        <_>
          47 14 17 4 -1.</_>
        <_>
          47 15 17 2 2.</_></rects>
      <tilted>0</tilted></_>
    <_>
      <rects>
        <_>
          49 2 8 2 -1.</_>
        <_>
          49 3 8 1 2.</_></rects>
      <tilted>0</tilted></_>
    <_>
      <rects>
        <_>
          49 4 3 6 -1.</_>
        <_>
          50 5 1 6 3.</_></rects>
      <tilted>1</tilted></_>
    <_>
      <rects>
        <_>
          49 8 4 7 -1.</_>
        <_>
          50 8 2 7 2.</_></rects>
      <tilted>0</tilted></_>
    <_>
      <rects>
        <_>
          50 9 4 6 -1.</_>
        <_>
          51 9 2 6 2.</_></rects>
      <tilted>0</tilted></_>
    <_>
      <rects>
        <_>
          51 6 9 6 -1.</_>
        <_>
          54 8 3 2 9.</_></rects>
      <tilted>0</tilted></_>
    <_>
      <rects>
        <_>
          56 4 10 4 -1.</_>
        <_>
          61 4 5 4 2.</_></rects>
      <tilted>0</tilted></_>
    <_>
      <rects>
        <_>
          56 5 24 5 -1.</_>
        <_>
          68 5 12 5 2.</_></rects>
      <tilted>0</tilted></_>
    <_>
      <rects>
        <_>
          56 11 24 6 -1.</_>
        <_>
          68 11 12 6 2.</_></rects>
      <tilted>0</tilted></_>
    <_>
      <rects>
        <_>
          57 3 26 12 -1.</_>
        <_>
          70 3 13 12 2.</_></rects>
      <tilted>0</tilted></_>
    <_>
      <rects>
        <_>
          57 4 24 13 -1.</_>
        <_>
          69 4 12 13 2.</_></rects>
      <tilted>0</tilted></_>
    <_>
      <rects>
        <_>
          58 0 32 2 -1.</_>
        <_>
          58 0 16 1 2.</_>
        <_>
          74 1 16 1 2.</_></rects>
      <tilted>0</tilted></_>
    <_>
      <rects>
        <_>
          58 3 28 8 -1.</_>
        <_>
          65 3 14 8 2.</_></rects>
      <tilted>0</tilted></_>
    <_>
      <rects>
        <_>
          58 14 26 6 -1.</_>
        <_>
          58 14 13 3 2.</_>
        <_>
          71 17 13 3 2.</_></rects>
      <tilted>0</tilted></_>
    <_>
      <rects>
        <_>
          60 1 4 2 -1.</_>
        <_>
          61 1 2 2 2.</_></rects>
      <tilted>0</tilted></_>
    <_>
      <rects>
        <_>
          60 4 4 13 -1.</_>
        <_>
          61 4 2 13 2.</_></rects>
      <tilted>0</tilted></_>
    <_>
      <rects>
        <_>
          60 14 12 4 -1.</_>
        <_>
          60 14 6 2 2.</_>
        <_>
          66 16 6 2 2.</_></rects>
      <tilted>0</tilted></_>
    <_>
      <rects>
        <_>
          62 0 6 9 -1.</_>
        <_>
          64 3 2 3 9.</_></rects>
      <tilted>0</tilted></_>
    <_>
      <rects>
        <_>
          62 0 26 20 -1.</_>
        <_>
          75 0 13 20 2.</_></rects>
      <tilted>0</tilted></_>
    <_>
      <rects>
        <_>
          62 0 28 2 -1.</_>
        <_>
          62 0 14 1 2.</_>
        <_>
          76 1 14 1 2.</_></rects>
      <tilted>0</tilted></_>
    <_>
      <rects>
        <_>
          62 1 4 2 -1.</_>
        <_>
          63 1 2 2 2.</_></rects>
      <tilted>0</tilted></_>
    <_>
      <rects>
        <_>
          62 2 6 3 -1.</_>
        <_>
          64 4 2 3 3.</_></rects>
      <tilted>1</tilted></_>
    <_>
      <rects>
        <_>
          65 19 12 1 -1.</_>
        <_>
          68 19 6 1 2.</_></rects>
      <tilted>0</tilted></_>
    <_>
      <rects>
        <_>
          67 8 6 6 -1.</_>
        <_>
          67 8 3 6 2.</_></rects>
      <tilted>1</tilted></_>
    <_>
      <rects>
        <_>
          68 1 4 1 -1.</_>
        <_>
          69 2 2 1 2.</_></rects>
      <tilted>1</tilted></_>
    <_>
      <rects>
        <_>
          68 8 4 6 -1.</_>
        <_>
          69 8 2 6 2.</_></rects>
      <tilted>0</tilted></_>
    <_>
      <rects>
        <_>
          69 4 20 6 -1.</_>
        <_>
          79 4 10 6 2.</_></rects>
      <tilted>0</tilted></_>
    <_>
      <rects>
        <_>
          69 14 8 6 -1.</_>
        <_>
          69 14 4 3 2.</_>
        <_>
          73 17 4 3 2.</_></rects>
      <tilted>0</tilted></_>
    <_>
      <rects>
        <_>
          70 3 5 2 -1.</_>
        <_>
          70 4 5 1 2.</_></rects>
      <tilted>0</tilted></_>
    <_>
      <rects>
        <_>
          71 5 6 2 -1.</_>
        <_>
          74 5 3 2 2.</_></rects>
      <tilted>0</tilted></_>
    <_>
      <rects>
        <_>
          71 6 4 5 -1.</_>
        <_>
          72 6 2 5 2.</_></rects>
      <tilted>0</tilted></_>
    <_>
      <rects>
        <_>
          71 8 4 3 -1.</_>
        <_>
          72 8 2 3 2.</_></rects>
      <tilted>0</tilted></_>
    <_>
      <rects>
        <_>
          72 1 12 19 -1.</_>
        <_>
          76 1 4 19 2.</_></rects>
      <tilted>0</tilted></_>
    <_>
      <rects>
        <_>
          72 8 4 6 -1.</_>
        <_>
          73 8 2 6 2.</_></rects>
      <tilted>0</tilted></_>
    <_>
      <rects>
        <_>
          73 3 1 16 -1.</_>
        <_>
          69 7 1 8 2.</_></rects>
      <tilted>1</tilted></_>
    <_>
      <rects>
        <_>
          75 2 4 14 -1.</_>
        <_>
          77 2 2 14 2.</_></rects>
      <tilted>0</tilted></_>
    <_>
      <rects>
        <_>
          75 3 6 2 -1.</_>
        <_>
          75 4 6 1 2.</_></rects>
      <tilted>0</tilted></_>
    <_>
      <rects>
        <_>
          75 6 6 9 -1.</_>
        <_>
          77 9 2 3 9.</_></rects>
      <tilted>0</tilted></_>
    <_>
      <rects>
        <_>
          75 8 4 5 -1.</_>
        <_>
          76 8 2 5 2.</_></rects>
      <tilted>0</tilted></_>
    <_>
      <rects>
        <_>
          77 1 3 15 -1.</_>
        <_>
          78 6 1 5 9.</_></rects>
      <tilted>0</tilted></_>
    <_>
      <rects>
        <_>
          78 3 12 13 -1.</_>
        <_>
          81 3 6 13 2.</_></rects>
      <tilted>0</tilted></_>
    <_>
      <rects>
        <_>
          79 0 3 2 -1.</_>
        <_>
          79 0 3 1 2.</_></rects>
      <tilted>1</tilted></_>
    <_>
      <rects>
        <_>
          79 0 11 2 -1.</_>
        <_>
          79 1 11 1 2.</_></rects>
      <tilted>0</tilted></_>
    <_>
      <rects>
        <_>
          80 1 10 4 -1.</_>
        <_>
          85 1 5 4 2.</_></rects>
      <tilted>0</tilted></_>
    <_>
      <rects>
        <_>
          80 4 4 12 -1.</_>
        <_>
          81 4 2 12 2.</_></rects>
      <tilted>0</tilted></_>
    <_>
      <rects>
        <_>
          80 11 3 3 -1.</_>
        <_>
          81 12 1 1 9.</_></rects>
      <tilted>0</tilted></_>
    <_>
      <rects>
        <_>
          81 0 9 2 -1.</_>
        <_>
          81 1 9 1 2.</_></rects>
      <tilted>0</tilted></_>
    <_>
      <rects>
        <_>
          86 4 4 6 -1.</_>
        <_>
          87 4 2 6 2.</_></rects>
      <tilted>0</tilted></_>
    <_>
      <rects>
        <_>
          86 7 4 4 -1.</_>
        <_>
          87 7 2 4 2.</_></rects>
      <tilted>0</tilted></_>
    <_>
      <rects>
        <_>
          86 7 4 5 -1.</_>
        <_>
          87 7 2 5 2.</_></rects>
      <tilted>0</tilted></_></features></cascade>
</opencv_storage>
